/* Auto-generated MLP Neural Network Parameters */
#ifndef MODEL_REGRESSOR_H
#define MODEL_REGRESSOR_H

#define NUM_FEATURES 48
#define NUM_HIDDEN 30
#define NUM_TARGETS 6

const float scaler_mean[NUM_FEATURES] = {
    10.108303f, -4.945707f, 7.320954f, -0.157981f, -0.031092f, 0.047656f, 9.881376f, -0.733050f, -3.794954f, -0.040652f, 0.008580f, 0.234336f, 9.942819f, -0.925767f, 0.357839f, -0.025842f, 0.046157f, 0.154694f, 9.825367f, -0.368194f, 0.256656f, 0.001831f, 0.008112f, -0.000802f, 11.762413f, 6.775738f, 9.627225f, 0.759722f, 3.537517f, 2.020499f, 10.867435f, 3.248106f, 5.097060f, 1.671563f, 2.651511f, 0.388828f, 10.720315f, 2.597607f, 2.739378f, 1.128190f, 1.636468f, 0.748592f, 10.109527f, 1.681257f, 1.524726f, 0.344717f, 0.235466f, 0.193605f
};

const float scaler_scale[NUM_FEATURES] = {
    7.165913f, 3.259993f, 4.228857f, 0.652719f, 4.072469f, 2.246751f, 3.121020f, 1.824378f, 3.035803f, 1.397764f, 2.944781f, 0.224386f, 3.117158f, 1.496614f, 2.808895f, 0.900280f, 1.698441f, 0.668623f, 1.851126f, 1.224091f, 1.255199f, 0.321111f, 0.187185f, 0.161718f, 8.005316f, 3.012159f, 3.312691f, 0.406983f, 2.855352f, 1.410022f, 3.659994f, 1.823444f, 3.066623f, 1.019430f, 1.632443f, 0.132295f, 3.461317f, 1.134057f, 2.473102f, 0.530708f, 0.777290f, 0.309338f, 1.828900f, 0.919056f, 0.778663f, 0.187616f, 0.115394f, 0.068418f
};

const float W1[NUM_HIDDEN][NUM_FEATURES] = {
    {-0.414175f, -0.276085f, -0.352331f, -0.497759f, 0.542558f, 0.532842f, -0.410187f, 0.010165f, -0.021207f, 0.182049f, 0.066255f, 0.115468f, -0.103577f, -0.121993f, -0.116750f, 0.228784f, 0.392652f, -0.239685f, 0.177397f, -0.200456f, -0.223859f, 0.011917f, -0.404971f, -0.488062f, 0.043454f, -0.034431f, -0.224349f, 0.125158f, 0.047761f, 0.347497f, -0.324342f, -0.448793f, 0.060825f, -0.045933f, 0.251929f, -0.123415f, 0.106432f, 0.055764f, -0.001732f, 0.099180f, 0.480812f, 0.067097f, -0.182137f, -0.081796f, -0.276980f, -0.007774f, -0.236085f, -0.284230f},
    {-0.237061f, -0.470682f, -0.780451f, -0.377035f, 0.491790f, 0.021590f, -0.658752f, 0.074844f, 0.028423f, -0.000075f, 0.241670f, 0.067455f, -0.010535f, -0.363034f, -0.214634f, -0.094192f, 0.445492f, -0.555678f, -0.007932f, 0.196936f, -0.170143f, -0.130451f, 0.231740f, -0.469669f, -0.591316f, 0.357509f, -0.594995f, -0.264688f, 0.429209f, 0.193708f, -0.537011f, -0.030193f, 0.241550f, -0.019515f, 0.019626f, 0.108202f, -0.339434f, -0.310457f, -0.281006f, -0.004336f, 0.085567f, -0.163684f, 0.159434f, -0.295934f, -0.050443f, -0.310105f, -0.024997f, -0.143144f},
    {-0.023931f, -0.035077f, 0.222600f, 0.211036f, -0.543673f, -0.190045f, 0.188506f, 0.083319f, 0.094831f, 0.266668f, -0.466118f, 0.011877f, -0.680491f, -0.118739f, -0.215807f, 0.008160f, -0.485992f, 0.276995f, -0.196540f, -0.197032f, -0.495294f, 0.087936f, 0.085474f, -0.317089f, -0.718585f, 0.110205f, -0.944852f, 0.013033f, -0.430634f, -0.566442f, 0.099149f, 0.361484f, 0.109499f, -0.493442f, -0.070185f, 0.480209f, -0.274809f, 0.041088f, 0.206739f, 0.115708f, -0.692748f, 0.503880f, 0.103796f, 0.068256f, 0.043941f, -0.032784f, 0.139385f, -0.339128f},
    {0.556521f, 0.485456f, 0.391013f, -0.106158f, -0.146969f, 0.093774f, 0.240811f, 0.113654f, -0.007517f, 0.739265f, 0.192871f, 0.398574f, -0.424935f, -0.061003f, 0.100299f, 0.722983f, -0.126518f, 0.779496f, 0.158010f, 0.249322f, -0.580215f, -0.228587f, 0.562857f, -0.212572f, 0.606830f, -0.368760f, 0.521355f, -0.082979f, -0.346008f, -0.125200f, 0.199740f, 0.311938f, -0.077379f, 0.297662f, 0.452096f, 0.163159f, 0.041225f, 0.037604f, 0.222513f, 0.110530f, -0.220387f, -0.811126f, 0.145638f, -0.097421f, -0.010883f, -0.130464f, -0.040847f, -0.156174f},
    {-0.614404f, -0.043966f, -0.533730f, -0.205382f, 0.134232f, 0.419526f, -0.545917f, 0.119807f, -0.451983f, -0.137236f, 0.347458f, -0.157328f, 0.209317f, -0.424403f, -0.619085f, -0.333706f, 0.471103f, -0.806603f, 0.055356f, 0.345501f, -0.172257f, -0.524498f, -0.334705f, -0.677937f, -0.193942f, -0.215523f, -0.622952f, -0.086772f, 0.296552f, 0.112745f, -0.323719f, -0.634203f, 0.066206f, -0.534000f, 0.313512f, 0.147027f, 0.139352f, -0.113542f, -0.451021f, -0.084330f, 0.363152f, -0.127498f, -0.249175f, -0.099601f, 0.457368f, -0.473818f, 0.130510f, -0.539250f},
    {-0.134613f, 0.269939f, -0.171256f, 0.079057f, 0.503667f, -0.652898f, -0.443089f, -0.125001f, 0.832310f, 0.146380f, 0.297729f, -0.045117f, 0.014080f, -0.063520f, -0.077235f, 0.018029f, 0.184055f, 0.099720f, 0.150609f, 0.285602f, 0.068179f, -0.151130f, 0.133025f, 0.768303f, 0.424972f, 0.200457f, -0.118269f, 0.459036f, -0.475757f, 0.339493f, 0.237332f, -0.223902f, -0.397399f, -0.250621f, -0.271392f, 0.238591f, 0.329884f, -0.030374f, 0.043251f, -0.148639f, -0.063444f, -0.567650f, -0.169680f, -0.173841f, 0.107760f, -0.162920f, 0.166530f, 0.167989f},
    {-0.320984f, -0.405843f, -0.403918f, 0.328061f, 0.703322f, 0.343834f, -0.318255f, 0.207026f, -0.395147f, 0.271960f, 0.386127f, 0.127877f, 0.302084f, -0.128618f, -0.438885f, -0.518020f, 0.099400f, -0.573387f, -0.042144f, 0.189871f, -0.003427f, -0.495105f, -0.447517f, -0.563227f, -0.046830f, 0.045769f, 0.076124f, -0.033816f, 0.224916f, 0.368262f, -0.129303f, -0.324659f, 0.365200f, -0.403876f, 0.289704f, 0.326101f, 0.049886f, -0.570726f, -0.069556f, 0.109887f, 0.437348f, 0.196246f, 0.145890f, -0.311117f, -0.172010f, 0.082784f, -0.074160f, -0.602422f},
    {0.745374f, -0.209408f, 0.002014f, -0.428493f, 0.064051f, 0.055179f, -0.147321f, -0.139419f, 0.577962f, 0.024606f, -0.116008f, -0.088469f, 0.005816f, 0.159829f, 0.222762f, 0.014365f, -0.229548f, 0.571017f, 0.072253f, -0.047874f, 0.083111f, -0.042780f, 0.207467f, 0.279497f, 0.393312f, 0.160072f, -0.312288f, -0.088031f, -0.294834f, 0.146329f, -0.003235f, 0.360359f, -0.253261f, 0.261990f, -0.040617f, -0.410263f, -0.199999f, 0.042468f, -0.088887f, -0.082457f, -0.058026f, 0.110801f, -0.095028f, -0.151769f, 0.322191f, 0.135278f, -0.146878f, -0.095641f},
    {0.484659f, 0.569928f, -0.020176f, -0.326260f, -0.044862f, -0.321051f, -0.222763f, -0.023260f, 0.921138f, 0.002790f, 0.328056f, -0.174224f, -0.306974f, 0.150727f, -0.754610f, -0.029146f, -0.129842f, 0.480249f, -0.127801f, -0.349290f, 0.009006f, -0.151055f, -0.070302f, -0.087330f, 0.233435f, 0.335460f, 0.267471f, 0.200262f, -0.766103f, 0.157097f, -0.431528f, 0.399012f, -0.839602f, 0.183598f, -0.070254f, -0.302182f, 0.259644f, 0.102592f, 0.133803f, 0.067616f, -0.308052f, 0.187847f, -0.061820f, 0.141427f, 0.146865f, -0.113822f, -0.240510f, -0.349283f},
    {0.965980f, 0.090391f, 0.302203f, -0.233059f, -0.210010f, 0.268550f, -0.114543f, 0.251543f, 0.471941f, -0.121706f, -0.392951f, -0.482743f, 0.009213f, -0.207475f, -0.497191f, 0.112228f, -0.160775f, 0.328828f, 0.278659f, -0.233989f, 0.179212f, 0.039457f, -0.304555f, -0.520431f, -0.102886f, 0.290586f, 0.072891f, -0.168559f, -0.149271f, -0.163324f, 0.117803f, 0.032021f, -0.194325f, -0.429583f, -0.488141f, -0.089612f, 0.117127f, -0.112493f, -0.154186f, -0.261723f, 0.008143f, -0.223381f, 0.110870f, 0.217355f, -0.079528f, -0.085379f, 0.052391f, -0.018669f},
    {-0.592974f, 0.011841f, 0.592877f, -0.146773f, 0.384181f, 0.263758f, -0.748662f, 0.066553f, -0.473862f, 0.607390f, 0.168058f, 0.419794f, -0.308699f, -0.360931f, -0.279090f, -0.242248f, 0.486277f, -0.081570f, -0.079685f, -0.144139f, -0.390264f, -0.373557f, -0.202868f, 0.163138f, -0.354987f, -0.757278f, -0.049292f, 0.307550f, 0.067958f, 0.219135f, -0.243874f, 0.295453f, 0.534518f, 0.035585f, -0.514881f, -0.267256f, 0.105407f, 0.210893f, -0.137105f, -0.097110f, 0.166977f, 0.079313f, 0.082085f, 0.047340f, 0.009314f, -0.034725f, -0.075121f, -0.342363f},
    {0.753385f, 0.213266f, -0.061885f, -0.065568f, -0.002422f, 0.316898f, 0.209113f, -0.190702f, -0.042079f, 0.173293f, -0.066746f, -0.160702f, -0.359809f, 0.047536f, 0.466388f, 0.311053f, -0.304225f, 0.385198f, 0.329463f, 0.365533f, 0.353753f, 0.223275f, 0.176190f, -0.294405f, 0.580572f, -0.004511f, 0.128746f, -0.342866f, -0.091107f, 0.091996f, 0.165984f, 0.240672f, 0.304520f, -0.146275f, 0.309089f, -0.228868f, 0.176092f, -0.129219f, 0.372765f, -0.143218f, -0.231512f, 0.079693f, 0.458359f, 0.097829f, -0.001733f, 0.054261f, -0.277816f, -0.120400f},
    {0.194408f, -0.469453f, -0.093571f, -0.209196f, -0.152946f, -0.122644f, 0.232455f, -0.123221f, -0.207229f, -0.218233f, -0.370129f, 0.053423f, 0.041840f, -0.037320f, -0.207868f, -0.275114f, 0.257027f, 0.007359f, -0.234341f, -0.066204f, -0.234454f, -0.397007f, 0.189748f, 0.545899f, 0.128693f, -0.476778f, 0.062203f, 0.068921f, 0.247443f, 0.016083f, -0.145306f, 0.012516f, 0.420471f, 0.445248f, -1.260495f, 0.227317f, 0.199980f, 0.254007f, 0.101093f, -0.094189f, 0.233738f, -0.176410f, 0.135830f, -0.382648f, -0.439660f, -0.099273f, -0.241363f, 0.260076f},
    {-0.156016f, 0.058502f, 0.313961f, -0.349805f, -0.041110f, -0.331353f, 0.016154f, -0.014516f, -0.233707f, -0.248306f, -0.013368f, 0.139056f, 0.576414f, -0.230110f, -0.411100f, 0.203924f, 0.222254f, -0.078984f, 0.033271f, -0.579067f, -0.523130f, -0.374737f, 0.311456f, -0.212868f, 0.148699f, 0.021452f, 0.208546f, 0.193277f, 0.630257f, 0.324303f, -0.071664f, -0.058033f, -0.015633f, 0.153878f, -1.350552f, -0.252215f, 0.442723f, 0.385425f, -0.219753f, 0.266441f, 0.427805f, -0.052801f, -0.164723f, -0.093849f, 0.113430f, 0.108367f, -0.305687f, -0.042879f},
    {-0.686873f, 0.083524f, -0.105231f, 0.399856f, 0.591463f, 0.071363f, -0.596085f, 0.000880f, -0.333671f, 0.297376f, 0.266208f, 0.165105f, -0.456415f, -0.023754f, -0.222781f, 0.491580f, 0.215917f, 0.188466f, 0.343361f, -0.049233f, -0.173052f, 0.285017f, -0.082420f, -0.232818f, -0.559372f, -0.567604f, -0.557023f, 0.088143f, -0.257944f, -0.075603f, -0.247692f, 0.088983f, -0.133626f, 0.191749f, -0.509717f, -0.030509f, -0.318956f, 0.032448f, -0.087845f, -0.289946f, 0.311078f, 0.208285f, 0.145263f, 0.224924f, 0.190174f, 0.145990f, 0.067826f, -0.078852f},
    {-0.517779f, -0.278614f, -0.584651f, 0.547678f, 0.417607f, 0.587817f, -0.520208f, -0.104989f, -0.398104f, -0.013978f, 0.395296f, 0.355824f, -0.309497f, 0.392635f, 0.112770f, -0.091181f, 0.135042f, -0.252366f, 0.034053f, 0.098847f, 0.302243f, 0.592632f, -0.298501f, 0.081278f, -0.166717f, 0.022779f, -0.216479f, 0.103410f, 0.077051f, -0.129033f, -0.341707f, -0.291569f, 0.313342f, 0.008356f, 0.177087f, 0.187777f, -0.337369f, -0.137234f, -0.011348f, 0.118108f, 0.171036f, 0.120225f, -0.142245f, 0.171011f, -0.067707f, -0.186426f, 0.010118f, 0.170538f},
    {0.131556f, -0.116725f, 0.392624f, 0.165266f, 0.355604f, 0.050320f, -0.339781f, 0.022910f, 0.232704f, 0.129499f, 0.019019f, -0.210349f, 0.678963f, 0.507342f, -0.312343f, -0.276460f, 0.472538f, -0.249453f, -0.412895f, -0.322543f, -0.265084f, -0.276014f, 0.100544f, -0.217928f, 0.265200f, -0.042577f, 0.484673f, -0.109597f, 0.127018f, 0.364863f, -0.406667f, -0.157724f, 0.167318f, 0.392345f, -0.783618f, -0.188216f, 0.083982f, 0.074113f, -0.531321f, -0.015783f, 0.007112f, -0.271701f, -0.261502f, 0.067515f, -0.079626f, 0.098535f, -0.229263f, -0.510140f},
    {0.144894f, -0.078601f, 0.123940f, 0.323017f, 0.257501f, -0.128430f, 0.178212f, 0.059965f, 0.000047f, -0.145459f, -0.237570f, 0.213647f, -0.048721f, -0.013562f, -0.230938f, 0.496462f, -0.705619f, 0.239414f, -0.100486f, 0.252042f, -0.245253f, 0.040241f, 0.102913f, 0.001207f, 0.464745f, 0.483916f, 0.226406f, -0.050683f, -0.473226f, -0.398409f, 0.220537f, -0.117762f, -0.075809f, 0.110614f, -0.131902f, 0.070131f, 0.164094f, -0.124320f, -0.200545f, -0.245683f, -0.217361f, -0.377727f, 0.618916f, 0.252801f, 0.116600f, -0.108643f, -0.148291f, 0.244354f},
    {0.050340f, 0.231851f, 0.063198f, -0.265471f, 0.269783f, -0.337664f, -0.088358f, 0.155057f, 0.264128f, -0.113567f, -0.121536f, -0.197683f, -0.057728f, 0.537195f, 0.104187f, -0.360136f, 0.144810f, 0.062834f, 0.466441f, 0.047802f, 0.269682f, 0.046353f, 0.239756f, -0.398838f, 0.225102f, -0.244121f, 0.229447f, 0.142954f, -0.432643f, -0.296070f, -0.036109f, 0.157473f, -0.128311f, -0.099951f, -0.582572f, -0.064674f, 0.289069f, -0.126714f, 0.013616f, 0.295232f, -0.242107f, 0.293016f, 0.096421f, -0.086031f, -0.323558f, -0.365622f, -0.163215f, -0.178746f},
    {-0.029314f, -0.279313f, -0.200882f, -0.150684f, 0.723069f, 0.257660f, -0.378837f, -0.239283f, -0.393216f, 0.308573f, 0.025826f, -0.231530f, 0.356456f, -0.175997f, -0.512320f, -0.181706f, 0.675396f, -0.095401f, -0.019658f, 0.086702f, 0.195216f, -0.374327f, 0.394866f, -0.143797f, 0.084321f, 0.097395f, 0.215158f, -0.105170f, 0.172742f, 0.013159f, -0.560726f, -0.068347f, 0.171249f, -0.136575f, -0.440082f, -0.000244f, 0.136690f, -0.376038f, -0.622124f, 0.057388f, 0.230081f, 0.029422f, -0.062206f, -0.025316f, -0.243375f, -0.152094f, -0.057071f, 0.104910f},
    {0.250950f, 0.436485f, 0.494974f, -0.344692f, 0.443646f, 0.185287f, 0.206417f, 0.060273f, -0.001323f, 0.063482f, 0.082008f, -0.058153f, 0.047279f, 0.187563f, -0.185148f, -0.118604f, 0.120147f, 0.589289f, 0.068389f, -0.455074f, -0.000120f, 0.032309f, 0.310847f, 0.123898f, 0.056077f, -0.467633f, -0.042267f, -0.196043f, -0.117366f, 0.239793f, 0.141455f, -0.029436f, -0.050387f, 0.250536f, -0.044532f, 0.002331f, 0.009576f, 0.115008f, 0.132727f, -0.123759f, 0.286624f, -0.217064f, -0.008634f, -0.389999f, -0.514244f, 0.025777f, -0.161004f, -0.080652f},
    {-0.629074f, 0.549225f, 0.345446f, 0.138619f, -0.879550f, -0.630946f, 0.376054f, 0.066657f, 0.438220f, -0.155744f, -0.603739f, 0.522164f, -0.183223f, 0.177084f, 0.733109f, 0.480924f, -0.358002f, 0.324529f, -0.098774f, 0.328301f, -0.105460f, -0.013097f, 0.558636f, 0.312074f, -0.724995f, -0.157637f, -0.216707f, 0.086090f, -0.043886f, -0.225861f, 0.731497f, -0.078995f, 0.483271f, 0.439925f, -0.226390f, -0.061632f, -0.003106f, -0.129618f, 0.288963f, -0.226510f, -0.766397f, -0.325080f, 0.301181f, -0.317966f, 0.170644f, -0.078772f, -0.141890f, 0.271715f},
    {-0.062074f, 0.583987f, -0.038294f, -0.077611f, 0.050385f, -0.036211f, 0.010544f, -0.108965f, 0.026588f, -0.501028f, 0.006233f, 0.246055f, 0.047838f, 0.196294f, -0.139749f, -0.512977f, -0.292378f, 0.350594f, -0.322338f, -0.035938f, 0.095558f, 0.368988f, -0.171346f, -0.070277f, 0.179032f, -0.485887f, -0.080877f, -0.033452f, -0.274230f, -0.017994f, 0.351635f, -0.017841f, -0.302585f, 0.516048f, -0.271795f, 0.080284f, 0.195098f, -0.327523f, -0.192509f, 0.291586f, -0.098706f, -0.266342f, -0.042625f, -0.347774f, -0.049759f, 0.312636f, 0.122685f, 0.021843f},
    {-0.074690f, 0.193245f, -0.082234f, 0.095316f, 0.400903f, -0.245719f, -0.380707f, 0.126281f, -0.261228f, -0.133879f, 0.176273f, -0.331723f, 0.435701f, 0.477880f, -0.240594f, 0.573757f, 0.540226f, -0.183331f, -0.461806f, -0.386964f, -0.187585f, -0.242542f, 0.156257f, -0.059977f, 0.262602f, -0.314295f, 0.235283f, 0.035770f, 0.246695f, 0.688946f, -0.221352f, 0.288058f, 0.086887f, 0.146071f, -0.652640f, -0.408493f, 0.443260f, 0.056251f, -0.200749f, 0.079442f, 0.473856f, -0.247937f, -0.319330f, 0.124487f, 0.116958f, -0.101614f, 0.183865f, 0.011861f},
    {-0.025045f, -0.264920f, -0.392685f, 0.197095f, 0.281821f, 0.175265f, -0.297596f, 0.206576f, -0.023900f, -0.426931f, 0.543078f, -0.457313f, 0.199238f, 0.251685f, -0.092137f, 0.065496f, 0.334146f, -0.161320f, -0.227346f, 0.378700f, -0.032913f, -0.145336f, 0.006523f, -0.345996f, 0.157607f, 0.148592f, -0.116504f, 0.236039f, 0.227271f, 0.422103f, -0.260211f, -0.359032f, 0.398204f, 0.102047f, 0.242477f, -0.024822f, 0.264321f, 0.059363f, -0.316878f, -0.038846f, 0.259354f, 0.087438f, -0.195664f, -0.216514f, 0.067006f, -0.653923f, -0.018629f, 0.177129f},
    {0.609328f, -0.396170f, 0.013097f, 0.095753f, -0.123331f, -0.537611f, -0.081137f, -0.055432f, 0.111702f, -0.082663f, 0.143606f, -0.457373f, 0.880453f, 0.145973f, -0.042477f, 0.422855f, 0.378927f, -0.231591f, 0.044135f, -0.263208f, -0.108096f, -0.539206f, -0.068580f, 0.436456f, 0.429343f, -0.147145f, 0.249047f, 0.020130f, 0.712755f, 0.142137f, -0.247027f, -0.351105f, 0.164725f, 0.519471f, -1.956387f, 0.089837f, 0.362691f, -0.090488f, -0.262886f, 0.139170f, 0.626168f, -0.053515f, 0.095500f, -0.312180f, -0.510605f, -0.106870f, -0.180411f, -0.167746f},
    {0.004621f, -0.157207f, -0.084790f, 0.548510f, -0.065560f, -0.405734f, -0.275695f, -0.103080f, 0.224818f, 0.036105f, -0.231263f, -0.100674f, -0.003781f, -0.348754f, -0.062048f, -0.179026f, -0.067232f, 0.558166f, -0.067810f, -0.014833f, -0.094075f, -0.033435f, -0.068699f, 0.138808f, 0.012251f, -0.228511f, 0.013005f, 0.025126f, -0.624123f, -0.210040f, -0.049834f, -0.234741f, 0.078233f, -0.215109f, -0.558818f, 0.075676f, 0.094588f, 0.263070f, -0.036246f, 0.288606f, -0.220659f, -0.043105f, -0.009384f, 0.117780f, -0.088767f, -0.143657f, 0.211108f, 0.187180f},
    {-0.374863f, -0.198837f, 0.011645f, -0.269836f, 0.570023f, 0.162544f, -0.543826f, -0.234836f, -0.171040f, -0.108089f, 0.386936f, 0.377079f, -0.099125f, -0.287536f, -0.284877f, -0.143337f, 0.570809f, -0.366458f, -0.123289f, -0.030562f, -0.004236f, -0.310606f, 0.015411f, -0.181502f, -0.012377f, -0.180111f, 0.301420f, 0.104485f, 0.101425f, 0.666070f, -0.374020f, -0.324158f, 0.243087f, 0.023584f, -0.202088f, -0.277779f, 0.115976f, 0.009498f, -0.175520f, 0.259403f, 0.239860f, -0.274249f, -0.147644f, 0.093969f, -0.074432f, -0.234473f, 0.074435f, 0.316048f},
    {-0.649022f, -0.131375f, -0.130134f, 0.227216f, 0.382575f, 0.223336f, -0.934313f, -0.146424f, -0.332850f, 0.040539f, 0.318544f, 0.108236f, 0.242569f, -0.116886f, -0.243497f, -0.201457f, 0.520074f, -0.267732f, 0.258657f, 0.107949f, -0.123824f, -0.122397f, 0.242048f, -0.294034f, -0.036209f, -0.187472f, -0.161911f, 0.296009f, 0.242745f, -0.006977f, -0.298398f, 0.052349f, 0.052225f, 0.377657f, 0.313195f, -0.282326f, 0.111106f, 0.182703f, -0.306054f, 0.043753f, 0.709948f, -0.247555f, -0.203195f, -0.171889f, 0.099856f, -0.232472f, 0.081161f, -0.117360f},
    {-0.213254f, 0.157577f, 0.671588f, 0.260454f, -0.591022f, -0.511944f, 0.129099f, -0.106689f, 0.032973f, 0.080854f, -0.684922f, 0.308334f, 0.157764f, -0.001080f, -0.463517f, -0.044712f, 0.049355f, -0.155995f, -0.214290f, -0.038164f, -0.054515f, -0.035488f, -0.093453f, 0.281601f, -0.013259f, -0.195314f, -0.026224f, -0.339241f, 0.090999f, -0.624738f, -0.021611f, 0.087994f, -0.134058f, -0.327242f, -0.479346f, 0.124049f, -0.337172f, -0.117850f, 0.009016f, -0.122489f, -0.313800f, 0.292357f, -0.166619f, -0.002264f, -0.151940f, -0.013994f, 0.042815f, -0.017884f}
};

const float b1[NUM_HIDDEN] = {
    0.547260f, 0.085855f, 0.574864f, 0.218405f, 0.606911f, -0.139364f, 0.367405f, 0.508022f, 0.657559f, 0.626178f, 0.319113f, 0.631475f, 0.692690f, 0.381278f, 0.094371f, 0.596104f, 0.388600f, 0.361400f, 0.151124f, 0.300644f, -0.052794f, 0.637785f, -0.107066f, 0.433654f, 0.643559f, -0.066209f, 0.635203f, 0.155740f, 0.072708f, 0.504420f
};

const float W2[NUM_TARGETS][NUM_HIDDEN] = {
    {-0.177601f, -0.068152f, -0.375742f, -0.084184f, -0.051972f, -0.073080f, -0.080150f, 0.032652f, -0.302548f, -0.434158f, -0.298021f, -0.539723f, -0.159968f, -0.370360f, -0.204756f, -0.239657f, -0.102897f, -0.140172f, -0.002296f, 0.159512f, -0.095798f, -0.616046f, -0.439592f, -0.245700f, -0.341303f, -0.156069f, -0.468976f, -0.165650f, 0.253097f, -0.724676f},
    {0.143250f, 0.156780f, -0.429673f, -0.122152f, -0.086691f, -0.029113f, -0.274478f, -0.649304f, 0.240665f, -0.766371f, -0.000721f, -0.146029f, -0.410419f, -0.110941f, -0.217462f, -0.221616f, -0.516982f, 0.184279f, 0.022849f, -0.457675f, 0.140860f, -0.326975f, -0.127972f, -0.073320f, -0.126062f, -0.765309f, -0.187886f, 0.194757f, 0.322350f, 0.464879f},
    {0.627170f, 0.629782f, 0.430307f, -0.860272f, 0.475156f, -1.206381f, 0.468243f, -0.647461f, -1.378761f, -0.107674f, 0.602775f, -0.138394f, 0.706692f, 0.778109f, 0.545622f, 0.659085f, 0.430870f, -0.385520f, -0.312872f, 0.499820f, -0.815686f, 0.699830f, -0.343511f, 0.814823f, 0.785073f, 0.622165f, -0.419765f, 0.724442f, 0.460284f, -0.200893f},
    {-0.358431f, -0.056972f, -0.373964f, -0.265366f, -0.056955f, -0.205368f, 0.178066f, -0.580194f, 0.122064f, -0.340079f, -0.187561f, -0.447640f, -0.156223f, -0.107360f, -0.082209f, -0.152793f, -0.016373f, -0.697157f, -0.346187f, 0.039179f, -0.322032f, 0.116340f, -0.315067f, 0.039112f, 0.277309f, 0.328152f, -0.405456f, -0.251771f, 0.255280f, 0.022937f},
    {-0.355270f, 0.082775f, -0.152083f, -0.076885f, 0.010199f, 0.093485f, 0.422012f, 0.143708f, -0.209858f, 0.221916f, -0.025205f, 0.065805f, -0.031132f, 0.023371f, -0.107348f, -0.175321f, -0.127685f, -0.363676f, -0.005008f, -0.050350f, 0.117037f, 0.103701f, -0.128941f, 0.109538f, 0.190560f, 0.078920f, 0.019230f, 0.097521f, -0.034932f, -0.037558f},
    {0.006310f, -0.002472f, 0.014294f, 0.001121f, 0.003226f, 0.003917f, 0.008240f, 0.009528f, 0.003408f, 0.019695f, 0.001539f, 0.013801f, 0.004037f, 0.011212f, 0.005711f, 0.009050f, -0.001706f, -0.006538f, 0.003015f, -0.004784f, 0.004526f, 0.017108f, 0.005984f, 0.003144f, 0.008934f, 0.007715f, 0.011532f, 0.004681f, -0.007162f, 0.009764f}
};

const float b2[NUM_TARGETS] = {
    -0.725696f, -0.404182f, 0.125821f, -0.422574f, -0.518085f, 0.877807f
};

#endif // MODEL_REGRESSOR_H
