{
  "node_count": 63,
  "features": [
    29,
    24,
    8,
    10,
    12,
    -2,
    -2,
    69,
    -2,
    -2,
    36,
    37,
    -2,
    -2,
    25,
    -2,
    -2,
    9,
    29,
    30,
    -2,
    -2,
    66,
    -2,
    -2,
    4,
    11,
    -2,
    -2,
    32,
    -2,
    -2,
    71,
    13,
    15,
    0,
    -2,
    -2,
    1,
    -2,
    -2,
    53,
    22,
    -2,
    -2,
    6,
    -2,
    -2,
    59,
    1,
    34,
    -2,
    -2,
    35,
    -2,
    -2,
    40,
    1,
    -2,
    -2,
    1,
    -2,
    -2
  ],
  "thresholds": [
    0.0291424123570323,
    8.512463569641113,
    0.017928178422152996,
    0.3555160313844681,
    7.6594109535217285,
    -2.0,
    -2.0,
    -0.09678587689995766,
    -2.0,
    -2.0,
    2.077751040458679,
    1.4723360538482666,
    -2.0,
    -2.0,
    3.78035831451416,
    -2.0,
    -2.0,
    5.201026916503906,
    0.003722522407770157,
    -3.3603498935699463,
    -2.0,
    -2.0,
    0.30455195903778076,
    -2.0,
    -2.0,
    0.27413254976272583,
    0.038651290349662304,
    -2.0,
    -2.0,
    0.024938865564763546,
    -2.0,
    -2.0,
    0.007904588244855404,
    12.793004989624023,
    0.8858112990856171,
    0.03863020800054073,
    -2.0,
    -2.0,
    1.2589648962020874,
    -2.0,
    -2.0,
    0.07977594807744026,
    2.3832353353500366,
    -2.0,
    -2.0,
    22.826976776123047,
    -2.0,
    -2.0,
    0.02015249151736498,
    1.731350839138031,
    1.4125998616218567,
    -2.0,
    -2.0,
    0.032287195324897766,
    -2.0,
    -2.0,
    0.42000146210193634,
    1.7058712840080261,
    -2.0,
    -2.0,
    1.3821682929992676,
    -2.0,
    -2.0
  ],
  "children_left": [
    1,
    2,
    3,
    4,
    5,
    -1,
    -1,
    8,
    -1,
    -1,
    11,
    12,
    -1,
    -1,
    15,
    -1,
    -1,
    18,
    19,
    20,
    -1,
    -1,
    23,
    -1,
    -1,
    26,
    27,
    -1,
    -1,
    30,
    -1,
    -1,
    33,
    34,
    35,
    36,
    -1,
    -1,
    39,
    -1,
    -1,
    42,
    43,
    -1,
    -1,
    46,
    -1,
    -1,
    49,
    50,
    51,
    -1,
    -1,
    54,
    -1,
    -1,
    57,
    58,
    -1,
    -1,
    61,
    -1,
    -1
  ],
  "children_right": [
    32,
    17,
    10,
    7,
    6,
    -1,
    -1,
    9,
    -1,
    -1,
    14,
    13,
    -1,
    -1,
    16,
    -1,
    -1,
    25,
    22,
    21,
    -1,
    -1,
    24,
    -1,
    -1,
    29,
    28,
    -1,
    -1,
    31,
    -1,
    -1,
    48,
    41,
    38,
    37,
    -1,
    -1,
    40,
    -1,
    -1,
    45,
    44,
    -1,
    -1,
    47,
    -1,
    -1,
    56,
    53,
    52,
    -1,
    -1,
    55,
    -1,
    -1,
    60,
    59,
    -1,
    -1,
    62,
    -1,
    -1
  ],
  "leaf_class": [
    -1,
    -1,
    -1,
    -1,
    -1,
    3,
    1,
    -1,
    2,
    1,
    -1,
    -1,
    2,
    4,
    -1,
    4,
    0,
    -1,
    -1,
    -1,
    3,
    1,
    -1,
    3,
    2,
    -1,
    -1,
    3,
    2,
    -1,
    4,
    0,
    -1,
    -1,
    -1,
    -1,
    4,
    0,
    -1,
    4,
    0,
    -1,
    -1,
    0,
    0,
    -1,
    4,
    0,
    -1,
    -1,
    -1,
    0,
    4,
    -1,
    0,
    0,
    -1,
    -1,
    4,
    0,
    -1,
    0,
    0
  ]
}